svm_type c_svc
kernel_type polynomial
degree 20
gamma 0.25
coef0 0
nr_class 2
total_sv 1189
rho -1.0018656342820411
label 1 -1
nr_sv 593 596
SV
8192 1:-0.847717 2:-0.784655 3:0.503333 4:0.783394 
8192 1:-0.826139 2:-0.759333 3:-0.693914 4:0.267035 
8192 1:-0.810645 2:-0.794565 3:0.258344 4:0.150771 
8192 1:-0.722532 2:-0.636421 3:-0.38332 4:0.622888 
8192 1:-0.840224 2:-0.801351 3:0.376242 4:0.00781591 
8192 1:-0.84779 2:-0.582755 3:0.224194 4:0.335858 
8192 1:-0.664182 2:-0.754566 3:-0.51666 4:0.848957 
8192 1:-0.779055 2:-0.831692 3:-0.490598 4:0.351235 
8192 1:-0.794041 2:-0.732919 3:0.193241 4:0.310828 
8192 1:-0.838599 2:-0.835116 3:-0.765506 4:0.0620954 
8192 1:-0.862184 2:-0.738265 3:-0.619058 4:0.580596 
8192 1:-0.757819 2:-0.844935 3:-0.330766 4:0.181843 
8192 1:-0.863147 2:-0.73396 3:0.18184 4:0.297275 
8192 1:-0.808973 2:-0.804622 3:-0.704887 4:0.475554 
8192 1:-0.855666 2:-0.814393 3:0.146291 4:0.232159 
8192 1:-0.789066 2:-0.548109 3:-0.337992 4:0.527915 
8192 1:-1 2:-0.674179 3:0.16561 4:0.344937 
8192 1:-0.852665 2:-0.6996 3:-0.437787 4:0.267802 
8192 1:-0.864838 2:-0.767225 3:0.108555 4:0.174491 
8192 1:-0.842824 2:-0.723191 3:-0.47717 4:0.618509 
8192 1:-0.789954 2:-0.737525 3:-0.349153 4:0.177655 
14.674705554436711 1:0.377613 2:0.601785 3:-0.380947 4:0.981843 
8192 1:-1 2:-0.697305 3:-0.245616 4:0.413186 
8192 1:-0.833944 2:-0.773243 3:-0.522402 4:0.670582 
8192 1:-0.839865 2:-0.756811 3:0.180974 4:0.0447694 
8192 1:-0.783087 2:-0.655685 3:0.0644534 4:0.552849 
8192 1:-0.794452 2:-0.577981 3:0.25309 4:0.25786 
8192 1:-0.829506 2:-0.725997 3:-0.366873 4:0.229761 
8192 1:-0.545378 2:-0.828 3:0.665159 4:0.65038 
8192 1:-0.812803 2:-0.75542 3:0.234574 4:0.751394 
8192 1:-0.827931 2:-0.705319 3:-0.376208 4:0.360313 
8192 1:-0.832879 2:-0.696306 3:0.140814 4:0.436043 
8192 1:-0.845823 2:-0.561134 3:-0.371974 4:0.447167 
8192 1:-0.869957 2:-0.633116 3:0.0911515 4:0.58293 
8192 1:-0.846984 2:-0.608055 3:0.108153 4:0.433933 
8192 1:-0.810564 2:-0.746678 3:0.0820724 4:0.345737 
8192 1:-0.780705 2:-0.688171 3:0.247535 4:0.656965 
8192 1:-0.869254 2:-0.687017 3:-0.35346 4:0.305394 
8192 1:-0.869042 2:-0.673185 3:-0.766034 4:0.433005 
8192 1:-0.866622 2:-0.577726 3:0.246883 4:0.0585151 
8192 1:-0.780979 2:-0.838036 3:-0.355291 4:0.191528 
8192 1:-0.834139 2:-0.813271 3:0.0144224 4:0.270039 
8192 1:-0.857928 2:-0.865683 3:0.24617 4:-0.344937 
8192 1:-0.886841 2:-0.522717 3:-0.609912 4:0.636026 
8192 1:-1 2:-0.632015 3:-0.487275 4:0.345448 
8192 1:-0.812036 2:-0.652095 3:-0.386583 4:0.49857 
8192 1:-0.867106 2:-0.813381 3:-0.739022 4:0.0466554 
8192 1:-0.810631 2:-0.692903 3:-0.331329 4:0.20601 
8192 1:-0.848463 2:-0.670623 3:-0.360625 4:0.257796 
8192 1:-0.836473 2:-0.638858 3:0.315799 4:-0.00855105 
8192 1:-0.875227 2:-0.537587 3:0.392093 4:0.753633 
8192 1:-0.824831 2:-0.669175 3:-0.274629 4:0.253673 
8192 1:-0.815391 2:-0.529291 3:-0.587498 4:0.357724 
8192 1:-0.849361 2:-0.694367 3:-0.452094 4:0.186894 
8192 1:-0.815899 2:-0.680552 3:0.0452821 4:0.328091 
8192 1:-0.854145 2:-0.690759 3:0.446592 4:0.0352113 
8192 1:-0.789975 2:-0.789835 3:-0.0199416 4:0.0397506 
8192 1:-0.810167 2:-0.675582 3:-0.382667 4:0.00410775 
8192 1:-0.86606 2:-0.756278 3:0.988516 4:-0.0611364 
8192 1:-0.858609 2:-0.639678 3:-0.576919 4:0.441413 
8192 1:-0.871032 2:-0.588025 3:-0.505921 4:-0.23267 
8192 1:-0.868381 2:-0.594712 3:0.0945297 4:0.201567 
8192 1:-0.83726 2:-0.53174 3:0.182778 4:0.363893 
8192 1:-0.876449 2:-0.664432 3:-0.391407 4:0.218765 
8192 1:-1 2:-0.580477 3:-0.355121 4:0.668664 
8192 1:-0.752721 2:-0.740032 3:-0.251176 4:0.234269 
8192 1:-0.85342 2:-0.779998 3:0.00594417 4:0.409511 
8192 1:-0.872529 2:-0.818334 3:0.20111 4:0.0333253 
8192 1:-0.819209 2:-0.710375 3:-0.475785 4:-0.0238952 
8192 1:-0.901976 2:-0.51226 3:-0.431041 4:0.548182 
8192 1:-0.820044 2:-0.753992 3:-0.621753 4:0.0680093 
8192 1:-0.837522 2:-0.935903 3:0.221881 4:0.406985 
8192 1:-0.802814 2:-0.595849 3:0.452506 4:0.669656 
8192 1:-0.869032 2:-0.754625 3:0.151683 4:0.158028 
8192 1:-0.827234 2:-0.822409 3:0.440708 4:0.0361384 
8192 1:-0.797536 2:-0.555861 3:0.327638 4:0.421594 
8192 1:-0.782084 2:-0.752272 3:0.339876 4:0.216399 
8192 1:-0.811331 2:-0.704795 3:-0.498963 4:0.110174 
8192 1:-0.85721 2:-0.789795 3:0.672014 4:-0.0103093 
8192 1:-0.872695 2:-0.710051 3:0.184889 4:-0.363574 
8192 1:-0.805763 2:-0.516095 3:-0.479917 4:0.418876 
8192 1:-0.684498 2:-0.836944 3:-0.305647 4:0.161639 
8192 1:-0.836411 2:-0.685902 3:-0.648262 4:0.0648445 
8192 1:-0.852969 2:-0.925558 3:-0.756916 4:0.160777 
8192 1:-0.803568 2:-0.707811 3:-0.382168 4:0.403244 
8192 1:-0.856719 2:-0.517257 3:-0.332103 4:0.621386 
8192 1:-0.860905 2:-0.847396 3:0.338762 4:0.0877962 
8192 1:-0.808914 2:-0.700717 3:-0.405832 4:0.103205 
8192 1:-0.808463 2:-0.766684 3:0.190624 4:0.372748 
8192 1:-0.848473 2:-0.693107 3:-0.352073 4:0.27477 
8192 1:-0.866462 2:-0.773087 3:0.435338 4:-0.166819 
8192 1:-0.801737 2:-0.490782 3:0.308257 4:0.401487 
8192 1:-0.805925 2:-0.708401 3:0.231161 4:0.468169 
8192 1:-0.859195 2:-0.59439 3:0.269519 4:0.464237 
8192 1:-0.721575 2:-0.596925 3:-0.327702 4:0.618573 
8192 1:-0.864629 2:-0.58587 3:0.315785 4:0.435403 
8192 1:-0.826649 2:-0.840154 3:0.211184 4:0.883833 
8192 1:-0.868413 2:-0.545096 3:0.274689 4:0.33669 
8192 1:-0.822663 2:-0.631653 3:-0.458717 4:-0.0546152 
8192 1:-0.886962 2:-0.546937 3:0.556371 4:0.64974 
8192 1:-0.844464 2:-0.778395 3:0.269051 4:0.391545 
8192 1:-0.791115 2:-0.691743 3:-0.276002 4:0.23267 
8192 1:-0.858462 2:-0.813659 3:0.501135 4:0.766706 
8192 1:-0.564908 2:-0.793636 3:0.410481 4:0.264509 
8192 1:-0.83922 2:-0.570274 3:0.352459 4:0.717477 
8192 1:-0.840842 2:-0.536265 3:-0.657552 4:0.621514 
8192 1:-0.872304 2:-0.661119 3:-0.475458 4:0.417566 
8192 1:-0.861066 2:-0.6882 3:0.410186 4:0.132422 
8192 1:-0.869217 2:-0.861554 3:0.478189 4:0.736978 
8192 1:-0.84919 2:-0.583756 3:-0.33774 4:0.13156 
8192 1:-0.886602 2:-0.788669 3:0.590995 4:-0.567458 
8192 1:-0.819246 2:-0.62702 3:-0.387793 4:0.248973 
8192 1:-0.834291 2:-0.602324 3:0.313699 4:0.360282 
8192 1:-0.853848 2:-0.618737 3:0.206788 4:0.225766 
8192 1:-0.839057 2:-0.864319 3:-0.423995 4:0.159338 
8192 1:-0.679292 2:-0.779263 3:-0.267249 4:0.610517 
8192 1:-0.847574 2:-0.571291 3:0.410686 4:0.369519 
8192 1:-0.515517 2:-0.699136 3:0.433249 4:0.548374 
8192 1:-0.466304 2:-0.775914 3:0.585947 4:0.392695 
8192 1:-0.819034 2:-0.579272 3:-0.288382 4:0.62145 
8192 1:-0.749174 2:-0.578565 3:0.122446 4:0.656165 
8192 1:-0.80368 2:-0.554179 3:0.194957 4:0.39471 
8192 1:-0.833099 2:-0.77806 3:0.250732 4:0.593671 
8192 1:-0.866568 2:-0.628023 3:0.292902 4:-0.026836 
8192 1:-0.854975 2:-0.825625 3:0.108297 4:0.348261 
8192 1:-0.879762 2:-0.704269 3:0.743793 4:0.673395 
8192 1:-0.73739 2:-0.801384 3:-0.346543 4:0.233213 
8192 1:-0.862236 2:-0.720309 3:-0.341236 4:0.382882 
8192 1:-0.819721 2:-0.699334 3:0.0454487 4:0.393367 
8192 1:-0.854139 2:-0.687067 3:0.272278 4:0.0759365 
7687.9424144915565 1:-0.839448 2:-0.445139 3:-0.56563 4:0.0274754 
8192 1:-0.831254 2:-0.691879 3:-0.257995 4:0.717413 
8192 1:-1 2:-0.553836 3:-0.381742 4:0.175833 
8192 1:-0.869058 2:-0.682265 3:0.312611 4:0.160744 
8192 1:-0.780246 2:-0.583329 3:-0.401965 4:0.508671 
8192 1:-1 2:-0.699369 3:0.267123 4:0.813793 
8192 1:-0.873553 2:-0.640823 3:0.530406 4:0.214481 
8192 1:-0.824555 2:-0.642462 3:-0.436509 4:0.540286 
8192 1:-0.863117 2:-0.715981 3:-0.489566 4:0.101415 
8192 1:-0.891823 2:-0.323847 3:0.375968 4:-0.832047 
8192 1:-0.799616 2:-0.722731 3:0.170488 4:0.130057 
8192 1:-0.884787 2:-0.610196 3:0.322806 4:-0.455382 
8192 1:-0.855261 2:-0.604378 3:0.191497 4:0.0223287 
8192 1:-0.842406 2:-0.76239 3:0.24878 4:0.26908 
8192 1:-0.714527 2:-0.707135 3:-0.282029 4:0.523823 
8192 1:-0.794291 2:-0.659978 3:0.0808823 4:0.544922 
8192 1:-0.77053 2:-0.575215 3:0.240885 4:0.515416 
8192 1:-0.829021 2:-0.624298 3:0.245471 4:0.329817 
8192 1:-0.867617 2:-0.798209 3:0.465703 4:0.28567 
8192 1:-0.806012 2:-0.671596 3:0.525467 4:0.533637 
8192 1:-0.829948 2:-0.613563 3:0.430573 4:0.437289 
8192 1:-0.851793 2:-0.799056 3:0.724754 4:-0.0280829 
8192 1:-0.867031 2:-0.827811 3:-0.419385 4:0.466283 
8192 1:-0.841318 2:-0.717794 3:-0.477526 4:0.487509 
8192 1:-0.833719 2:-0.674789 3:-0.554549 4:0.0340286 
8192 1:-0.843094 2:-0.728491 3:-0.325935 4:0.211764 
8192 1:-0.778946 2:-0.766148 3:-0.443346 4:0.633469 
8192 1:-0.888053 2:-0.622145 3:0.504555 4:0.517877 
8192 1:-0.836922 2:-0.738635 3:-0.425097 4:0.310605 
8192 1:-0.870628 2:-0.676839 3:0.182653 4:0.288932 
8192 1:-0.766158 2:-0.68209 3:-0.274419 4:0.438216 
8192 1:-0.82847 2:-0.775895 3:-0.402139 4:0.388732 
8192 1:-0.869905 2:-0.734713 3:-0.283029 4:0.0878928 
8192 1:-0.802694 2:-0.634437 3:0.22401 4:0.657955 
8192 1:-0.876863 2:-0.715519 3:-0.387353 4:0.491952 
8192 1:-0.884609 2:-0.542825 3:0.166538 4:-0.421562 
8192 1:-0.802572 2:-0.720289 3:0.321844 4:0.416191 
8192 1:-0.82846 2:-0.587536 3:-0.347228 4:0.114329 
8192 1:-0.852308 2:-0.459701 3:0.175029 4:0.600448 
8192 1:-0.868081 2:-0.610892 3:0.0538008 4:0.152785 
8192 1:-0.862833 2:-0.456634 3:-0.421569 4:0.4776 
8192 1:-0.869019 2:-0.663417 3:0.11287 4:0.70581 
8192 1:-0.802888 2:-0.674564 3:-0.294778 4:0.327771 
8192 1:-0.830574 2:-0.575344 3:-0.395963 4:0.0786867 
8192 1:-0.871014 2:-0.750482 3:0.240584 4:-0.161992 
8192 1:-0.754521 2:-0.688591 3:0.12068 4:0.191753 
8192 1:-0.834923 2:-0.838921 3:0.316384 4:0.16749 
8192 1:-0.742878 2:-0.557459 3:0.299381 4:0.548981 
8192 1:-0.815671 2:-0.643759 3:-0.292495 4:0.533381 
8192 1:-0.820845 2:-0.678693 3:-0.529308 4:0.789148 
8192 1:-0.858895 2:-0.807394 3:0.41905 4:-0.0945097 
8192 1:-0.869153 2:-0.619608 3:-0.308884 4:0.407304 
8192 1:-0.856159 2:-0.602013 3:0.470283 4:0.530024 
8192 1:-0.867214 2:-0.777423 3:-0.526169 4:0.335891 
8192 1:-0.834697 2:-0.778126 3:0.137616 4:0.330329 
8192 1:-0.842003 2:-0.712425 3:0.12804 4:0.450747 
8192 1:-0.878126 2:-0.66122 3:-0.283356 4:0.311148 
8192 1:-0.852137 2:-0.769266 3:-0.369411 4:0.236666 
8192 1:-0.765104 2:-0.557319 3:0.191425 4:0.516343 
8192 1:-0.838631 2:-0.674925 3:-0.333045 4:0.654247 
8192 1:-0.727585 2:-0.622417 3:0.0747758 4:0.689347 
8192 1:-0.819554 2:-0.695043 3:0.187551 4:0.00903063 
8192 1:-0.814756 2:-0.821261 3:-0.326779 4:0.26793 
8192 1:-0.879562 2:-0.686097 3:0.641768 4:0.643603 
8192 1:-0.829235 2:-0.782115 3:0.0751046 4:0.446944 
8192 1:-0.863989 2:-0.622958 3:-0.462383 4:0.720995 
8192 1:-0.845077 2:-0.911906 3:0.115601 4:-0.0989531 
8192 1:-0.838324 2:-0.724825 3:0.344065 4:0.0563095 
8192 1:-0.797785 2:-0.711516 3:0.191362 4:0.253032 
8192 1:-0.864073 2:-0.752384 3:-0.45053 4:0.530888 
8192 1:-0.865201 2:-0.782933 3:0.326246 4:-0.0278271 
8192 1:-0.814521 2:-0.654809 3:-0.317325 4:0.416543 
8192 1:-0.820333 2:-0.700779 3:0.258752 4:-0.0497242 
8192 1:-0.840794 2:-0.76443 3:0.172702 4:0.404715 
8192 1:-0.835657 2:-0.707705 3:-0.346784 4:0.551059 
3013.9787107818715 1:-1 2:-0.681201 3:-0.544827 4:0.85762 
8192 1:-0.815546 2:-0.818512 3:-0.386904 4:0.158219 
8192 1:-0.873797 2:-0.736132 3:-0.511118 4:0.430225 
8192 1:-0.853015 2:-0.630181 3:0.152602 4:-0.0921442 
8192 1:-0.786655 2:-0.521286 3:0.229025 4:0.522449 
8192 1:-0.846262 2:-0.593188 3:-0.212221 4:0.487701 
8192 1:-0.782165 2:-0.722376 3:-0.383858 4:0.383074 
8192 1:-0.804733 2:-0.660846 3:0.154624 4:0.326077 
8192 1:-0.811734 2:-0.551219 3:-0.348602 4:0.367826 
8192 1:-1 2:-0.582192 3:0.38203 4:0.103109 
8192 1:-0.838571 2:-0.778928 3:-0.730758 4:0.712843 
8192 1:-0.869231 2:-0.772981 3:0.124787 4:0.190505 
8192 1:-0.86796 2:-0.733832 3:0.385965 4:0.653032 
8192 1:-0.693466 2:-0.658609 3:-0.559139 4:0.472805 
8192 1:-0.860137 2:-0.777168 3:0.217533 4:0.701079 
8192 1:-0.879027 2:-0.693722 3:0.281944 4:0.623751 
8192 1:-0.851292 2:-0.773112 3:0.51127 4:-0.00896666 
8192 1:-0.762097 2:-0.594863 3:-0.363514 4:0.479166 
8192 1:-0.8536 2:-0.612794 3:-0.309736 4:0.443075 
8192 1:-0.838577 2:-0.772621 3:0.0507129 4:0.342316 
8192 1:-0.850338 2:-0.738673 3:0.315005 4:-0.0161273 
8192 1:-0.859428 2:-0.669357 3:0.125 4:0.290242 
8192 1:-0.866616 2:-0.690089 3:0.350488 4:0.661153 
8192 1:-0.80202 2:-0.54776 3:0.131345 4:0.487029 
8192 1:-0.844437 2:-0.798644 3:-0.5886 4:0.130855 
8192 1:-0.819479 2:-0.656241 3:-0.482706 4:0.520595 
8192 1:-0.80884 2:-0.571379 3:-0.481338 4:-0.00417169 
8192 1:-0.88125 2:-0.630498 3:-0.604198 4:0.0692874 
8192 1:-0.791519 2:-0.798245 3:-0.321875 4:0.677295 
8192 1:-0.738219 2:-0.768972 3:-0.525282 4:0.0194518 
8192 1:-0.89062 2:-0.819471 3:0.765395 4:-0.78854 
8192 1:-0.604054 2:-0.695209 3:-0.389724 4:0.732662 
8192 1:-0.775117 2:-0.636858 3:-0.355166 4:0.252778 
8192 1:-0.863545 2:-0.688249 3:0.251348 4:0.691873 
8192 1:-0.864593 2:-0.794158 3:-0.517396 4:0.154735 
8192 1:-0.676014 2:-0.702797 3:0.190629 4:0.568385 
8192 1:-0.855169 2:-0.757554 3:-0.538299 4:0.069384 
8192 1:-0.878112 2:-0.593785 3:0.118575 4:-0.314505 
8192 1:-0.873281 2:-0.684933 3:0.0654788 4:-0.287781 
8192 1:-1 2:-0.556298 3:0.464294 4:0.726396 
8192 1:-0.828804 2:-0.731749 3:-0.261865 4:0.426101 
8192 1:-0.868601 2:-0.480301 3:0.426429 4:-0.163846 
8192 1:-0.854523 2:-0.5287 3:0.579273 4:0.620714 
8192 1:-0.839428 2:-0.552999 3:-0.421068 4:-0.0373851 
8192 1:-0.863849 2:-0.752225 3:-0.429727 4:0.00311673 
8192 1:-1 2:-0.639957 3:0.446473 4:0.550451 
8192 1:-0.854466 2:-0.661033 3:-0.283709 4:0.714185 
8192 1:-0.820003 2:-0.696896 3:-0.407554 4:0.199137 
8192 1:-0.849711 2:-0.795191 3:-0.363608 4:0.306481 
8192 1:-0.835516 2:-0.754916 3:0.553159 4:0.804683 
8192 1:-0.833887 2:-0.643053 3:-0.385602 4:0.0825542 
8192 1:-0.834781 2:-0.576318 3:-0.393146 4:0.0752021 
8192 1:-0.88512 2:-0.651468 3:-0.384504 4:0.115192 
8192 1:-0.819618 2:-0.59645 3:0.156733 4:0.477855 
8192 1:-0.838701 2:-0.637278 3:0.237802 4:0.279565 
8192 1:-0.82845 2:-0.687729 3:0.344428 4:0.863502 
8192 1:-1 2:-0.670828 3:0.252895 4:0.679182 
8192 1:-0.782053 2:-0.636029 3:-0.243929 4:0.364213 
8192 1:-0.85428 2:-0.878335 3:0.891053 4:0.774187 
8192 1:-0.859187 2:-0.681116 3:0.117526 4:0.10215 
8192 1:-0.802993 2:-0.64439 3:0.0643064 4:0.53744 
8192 1:-0.852671 2:-0.801656 3:-0.569979 4:0.109246 
8192 1:-0.848631 2:-0.5909 3:0.460202 4:0.827251 
8192 1:-0.866797 2:-0.864681 3:0.363898 4:0.669943 
8192 1:-0.885297 2:-0.776249 3:0.27538 4:-0.0789738 
8192 1:-0.838297 2:-0.771551 3:0.263565 4:0.208919 
8192 1:-0.688935 2:-0.74634 3:-0.393977 4:0.165604 
8192 1:-0.771352 2:-0.6826 3:0.123649 4:0.110269 
8192 1:-0.797978 2:-0.610347 3:0.136113 4:0.400815 
8192 1:-0.84276 2:-0.586961 3:-0.422189 4:0.690147 
8192 1:-0.809913 2:-0.691756 3:0.145804 4:0.138176 
8192 1:-0.799219 2:-0.563869 3:0.184541 4:0.343914 
8192 1:-0.826804 2:-0.548843 3:0.608612 4:0.644146 
8192 1:-0.797012 2:-0.606392 3:0.0672266 4:0.445377 
8192 1:-0.791927 2:-0.844194 3:-0.396739 4:0.427699 
8192 1:-1 2:-0.466862 3:-0.267242 4:0.447199 
8192 1:-0.852092 2:-0.673248 3:-0.465194 4:0.449245 
8192 1:-1 2:-0.669112 3:-0.457284 4:0.234972 
8192 1:-0.841433 2:-0.615095 3:0.0802429 4:0.459314 
8192 1:-0.837381 2:-0.837726 3:-0.349499 4:0.0655797 
8192 1:-0.612937 2:-0.808504 3:0.464661 4:-0.246256 
8192 1:-0.856587 2:-0.720075 3:-0.603868 4:0.728155 
8192 1:-0.847319 2:-0.591887 3:0.234324 4:0.56749 
8192 1:-0.867977 2:-0.829565 3:0.294285 4:-0.116023 
8192 1:-0.892572 2:-0.768949 3:0.436267 4:0.704819 
8192 1:-0.862064 2:-0.717008 3:0.257762 4:0.450971 
8192 1:-0.777015 2:-0.649255 3:-0.336954 4:0.459634 
8192 1:-0.850427 2:-0.669338 3:-0.371638 4:0.111292 
8192 1:-0.85593 2:-0.716564 3:0.30626 4:0.154479 
8192 1:-0.861543 2:-0.666276 3:0.499774 4:0.0484456 
8192 1:-0.837772 2:-0.686323 3:0.0532241 4:-0.00768805 
8192 1:-0.844007 2:-0.795242 3:0.373065 4:0.394838 
8192 1:-0.865087 2:-0.60996 3:-0.424951 4:-0.212787 
8192 1:-0.861215 2:-0.530606 3:0.294412 4:0.585168 
8192 1:-0.810643 2:-0.756868 3:0.189707 4:0.441669 
8192 1:-0.813371 2:-0.667081 3:-0.378541 4:0.413347 
8192 1:-0.785289 2:-0.774535 3:0.246701 4:0.845729 
8192 1:-0.828447 2:-0.914945 3:0.0506404 4:0.000303685 
8192 1:-0.774775 2:-0.782716 3:-0.347212 4:0.477536 
8192 1:-0.772597 2:-0.648134 3:0.15748 4:0.337745 
8192 1:-0.883473 2:-0.792443 3:0.23334 4:-0.143131 
8192 1:-0.823566 2:-0.770287 3:-0.330259 4:0.227043 
8192 1:-0.829403 2:-0.691623 3:-0.359316 4:0.193064 
8192 1:-0.841744 2:-0.653667 3:-0.498567 4:-0.00803965 
8192 1:-0.854274 2:-0.731737 3:-0.527773 4:0.734388 
8192 1:-0.84134 2:-0.655558 3:0.208959 4:0.476097 
8192 1:-1 2:-0.60537 3:-0.554469 4:0.318597 
8192 1:-0.79085 2:-0.678157 3:0.372444 4:0.0964914 
8192 1:-0.855109 2:-0.632684 3:0.364943 4:0.358555 
8192 1:-0.894503 2:-0.64808 3:0.545761 4:-0.767282 
8192 1:-0.817674 2:-0.719074 3:-0.505724 4:0.0454088 
8192 1:-0.871907 2:-0.639535 3:0.245973 4:0.329434 
8192 1:-0.845163 2:-0.869847 3:0.282296 4:0.193734 
8192 1:-0.873771 2:-0.775473 3:-0.716073 4:-0.10167 
8192 1:-0.795135 2:-0.643826 3:0.146292 4:0.142876 
8192 1:-0.800976 2:-0.791386 3:0.333479 4:0.821306 
8192 1:-0.845824 2:-0.760274 3:-0.645602 4:-0.0773436 
8192 1:-0.846814 2:-0.686959 3:-0.247021 4:0.10653 
8192 1:-0.819752 2:-0.591306 3:-0.553278 4:-0.0434907 
8192 1:-0.849309 2:-0.70294 3:-0.554178 4:-0.0476145 
8192 1:-0.852252 2:-0.635874 3:-0.325579 4:0.738735 
8192 1:-0.833046 2:-0.732102 3:0.248757 4:0.834668 
8192 1:-0.860513 2:-0.813079 3:0.15147 4:0.28727 
8192 1:-0.857184 2:-0.924147 3:0.179649 4:0.590122 
8192 1:-0.797677 2:-0.612911 3:-0.400252 4:0.327675 
8192 1:-0.702268 2:-0.601126 3:-0.436323 4:0.565667 
8192 1:-0.859482 2:-0.768263 3:-0.52739 4:0.195174 
8192 1:-0.748319 2:-0.605411 3:-0.370287 4:0.4339 
8192 1:-0.852472 2:-0.886227 3:-0.297909 4:0.314664 
8192 1:-0.874847 2:-0.666445 3:-0.408661 4:0.532039 
8192 1:-0.870513 2:-0.810125 3:0.671112 4:-0.0276353 
8192 1:-0.816398 2:-0.723167 3:-0.516929 4:0.160233 
8192 1:-0.768187 2:-0.612819 3:-0.470914 4:0.0109167 
8192 1:-0.767042 2:-0.845003 3:0.0501767 4:0.175098 
8192 1:-1 2:-0.642865 3:0.246582 4:0.161544 
8192 1:-0.794358 2:-0.633436 3:0.201417 4:0.502214 
8192 1:-0.838424 2:-0.734746 3:0.353168 4:0.648206 
8192 1:-0.825605 2:-0.545738 3:0.174744 4:0.442372 
8192 1:-0.839238 2:-0.811282 3:-0.543658 4:0.0363302 
8192 1:-0.862484 2:-0.881127 3:-0.248857 4:0.0897469 
8192 1:-0.87511 2:-0.590428 3:0.528574 4:0.555822 
8192 1:-0.807832 2:-0.728722 3:0.139988 4:0.645233 
8192 1:-0.826691 2:-0.622922 3:0.331756 4:0.520115 
8192 1:-0.807079 2:-0.755631 3:-0.537292 4:0.831215 
8192 1:-0.841845 2:-0.536794 3:0.282297 4:0.544538 
8192 1:-0.870253 2:-0.736456 3:0.520024 4:-0.0660593 
8192 1:-0.83456 2:-0.777394 3:-0.518735 4:0.16116 
8192 1:-0.796677 2:-0.761293 3:-0.458023 4:0.748902 
8192 1:-0.832762 2:-0.563733 3:0.383288 4:0.563462 
8192 1:-0.829055 2:-0.640976 3:0.162821 4:0.697051 
8192 1:-0.835395 2:-0.803571 3:-0.523252 4:0.736083 
8192 1:-0.808928 2:-0.488511 3:0.505617 4:0.709007 
8192 1:-0.845757 2:-0.520098 3:0.186713 4:0.500583 
8192 1:-0.846311 2:-0.718956 3:-0.369078 4:0.328954 
8192 1:-0.830306 2:-0.74332 3:0.580094 4:0.692065 
8192 1:-0.754701 2:-0.650231 3:-0.48271 4:0.652137 
8192 1:-0.87594 2:-0.367923 3:0.463867 4:0.567906 
8192 1:-0.842377 2:-0.699377 3:0.172193 4:0.0460161 
8192 1:-0.844679 2:-0.71935 3:0.209608 4:0.517462 
8192 1:-0.805775 2:-0.648578 3:-0.470078 4:0.572509 
8192 1:-0.820395 2:-0.780164 3:0.180735 4:0.237177 
8192 1:-0.918169 2:-0.551814 3:0.0400735 4:0.070343 
8192 1:-0.807685 2:-0.676652 3:0.299283 4:0.245424 
8192 1:-0.848335 2:-0.657693 3:-0.358659 4:0.365268 
8192 1:-0.857851 2:-0.726463 3:-0.431372 4:0.575066 
8192 1:-0.880363 2:-0.743888 3:-0.472787 4:0.607032 
8192 1:-0.822973 2:-0.745437 3:-0.468032 4:0.649516 
8192 1:-0.852584 2:-0.781072 3:0.109285 4:0.262879 
8192 1:-0.860724 2:-0.695974 3:0.171387 4:0.301015 
8192 1:-0.842119 2:-0.803358 3:0.347414 4:0.00241352 
8192 1:-0.779202 2:-0.720126 3:-0.513025 4:0.134117 
8192 1:-0.879917 2:-0.627588 3:0.20717 4:0.465548 
8192 1:-0.866236 2:-0.772201 3:0.229227 4:0.247342 
8192 1:-0.832722 2:-0.694672 3:-0.588804 4:0.675729 
8192 1:-0.649083 2:-0.708876 3:0.0810819 4:0.45794 
8192 1:-0.736561 2:-0.693927 3:0.129225 4:0.266043 
8192 1:-0.85407 2:-0.710474 3:0.389627 4:0.112028 
8192 1:-0.799017 2:-0.604598 3:-0.362778 4:0.56327 
8192 1:-0.666214 2:-0.771348 3:0.0078877 4:0.354815 
8192 1:-0.856609 2:-0.54943 3:0.617571 4:0.665787 
8192 1:-0.774967 2:-0.601443 3:0.143877 4:0.461712 
8192 1:-0.793806 2:-0.780372 3:-0.406017 4:0.241588 
8192 1:-0.774239 2:-0.659032 3:-0.230528 4:0.444034 
8192 1:-0.871737 2:-0.744368 3:0.258727 4:0.121905 
8192 1:-0.856914 2:-0.805318 3:0.117968 4:0.137665 
8192 1:-0.869788 2:-0.594685 3:0.349532 4:-0.223048 
8192 1:-0.844201 2:-0.928982 3:0.309672 4:-0.0439702 
8192 1:-0.845439 2:-0.666575 3:-0.236451 4:0.295676 
8192 1:-0.817316 2:-0.751667 3:-0.511896 4:0.525582 
8192 1:-0.858132 2:-0.725856 3:0.244301 4:0.475266 
8192 1:-0.841852 2:-0.603342 3:-0.418122 4:0.106369 
8192 1:-0.826981 2:-0.713566 3:-0.425152 4:0.264956 
8192 1:-0.843841 2:-0.627491 3:-0.457328 4:-0.107328 
8192 1:-0.820663 2:-0.545001 3:0.285718 4:0.553009 
8192 1:-1 2:-0.614857 3:0.427722 4:-0.0131862 
8192 1:-0.863715 2:-0.790937 3:0.349017 4:0.0409014 
8192 1:-0.82746 2:-0.838824 3:0.328608 4:0.752066 
8192 1:-0.84374 2:-0.853788 3:0.217931 4:0.385503 
8192 1:-0.84506 2:-0.573518 3:0.179067 4:0.344681 
8192 1:-0.859801 2:-0.763131 3:-0.620009 4:0.280652 
8192 1:-0.883358 2:-0.668058 3:0.151563 4:0.560872 
8192 1:-0.797819 2:-0.517099 3:0.355361 4:0.654471 
8192 1:-0.659931 2:-0.791335 3:-0.339305 4:0.522385 
8192 1:-0.774375 2:-0.630642 3:0.186555 4:0.42869 
8192 1:-0.864679 2:-0.729836 3:0.29241 4:-0.0187165 
8192 1:-0.702016 2:-0.773292 3:0.163459 4:0.451099 
8192 1:-0.819489 2:-0.805632 3:0.140967 4:0.328475 
8192 1:-0.867014 2:-0.711861 3:-0.360222 4:0.349541 
8192 1:-0.867185 2:-0.61071 3:-0.469942 4:0.702166 
8192 1:-0.781915 2:-0.652376 3:0.323599 4:0.806857 
8192 1:-0.789789 2:-0.712317 3:-0.483648 4:0.605595 
8192 1:-0.88859 2:-0.747054 3:-0.581906 4:-0.0593463 
8192 1:-0.66102 2:-0.792909 3:0.25536 4:0.438664 
8192 1:-0.798101 2:-0.694358 3:0.579821 4:0.854455 
8192 1:-0.744764 2:-0.666265 3:-0.388674 4:0.588779 
8192 1:-0.67469 2:-0.629176 3:-0.338144 4:0.607928 
8192 1:-0.873956 2:-0.785741 3:-0.65311 4:0.870727 
8192 1:-0.865107 2:-0.799965 3:0.588398 4:-0.0187485 
8192 1:-0.819897 2:-0.780529 3:0.227934 4:0.339151 
8192 1:-0.872649 2:-0.833148 3:0.540648 4:0.593894 
8192 1:-0.77993 2:-0.542369 3:0.236292 4:0.53645 
8192 1:-0.824009 2:-0.654685 3:0.3153 4:0.770095 
8192 1:-0.877804 2:-0.751575 3:0.202122 4:-0.131463 
8192 1:-0.815661 2:-0.762531 3:0.180007 4:0.33263 
8192 1:-0.817848 2:-0.591794 3:-0.562571 4:0.411429 
8192 1:-0.866144 2:-0.746436 3:0.470274 4:0.357372 
8192 1:-0.914459 2:-0.688518 3:0.540328 4:0.648493 
8192 1:-0.891345 2:-0.655006 3:0.455502 4:0.387964 
8192 1:-0.887504 2:-0.705179 3:0.26723 4:-0.550196 
8192 1:-0.797501 2:-0.658906 3:-0.227286 4:0.599072 
8192 1:-0.805103 2:-0.579487 3:0.171583 4:0.662176 
8192 1:-0.850005 2:-0.765499 3:0.543128 4:0.893903 
8192 1:-0.850531 2:-0.70611 3:-0.552167 4:-0.0403581 
8192 1:-0.832448 2:-0.677203 3:0.262405 4:0.744138 
8192 1:-0.855055 2:-0.620982 3:0.0529696 4:0.341069 
8192 1:-0.872298 2:-0.576504 3:-0.382239 4:0.146296 
8192 1:-0.808895 2:-0.660898 3:-0.215174 4:0.44624 
8192 1:-0.865714 2:-0.655167 3:0.088864 4:0.356062 
8192 1:-0.890294 2:-0.378895 3:0.523535 4:0.578327 
8192 1:-1 2:-0.59282 3:0.508891 4:-0.221578 
8192 1:-0.822019 2:-0.808009 3:-0.442835 4:0.120978 
8192 1:-0.862621 2:-0.742775 3:-0.742184 4:0.214417 
8192 1:-0.857672 2:-0.783823 3:-0.363893 4:0.254311 
8192 1:-0.788535 2:-0.765664 3:-0.282832 4:0.377352 
8192 1:-0.828971 2:-0.725562 3:-0.433405 4:0.287462 
8192 1:-0.851044 2:-0.715194 3:-0.360092 4:0.127147 
8192 1:-0.653125 2:-0.739812 3:0.219717 4:0.299321 
8192 1:-0.818414 2:-0.818857 3:0.232682 4:0.228067 
8192 1:-0.86073 2:-0.754758 3:0.429719 4:0.0129945 
8192 1:-0.88752 2:-0.700711 3:0.319375 4:0.212019 
8192 1:-0.866164 2:-0.538498 3:-0.459609 4:0.193479 
8192 1:-0.856319 2:-0.856399 3:-0.270039 4:0.265979 
8192 1:-0.885023 2:-0.426441 3:0.0669671 4:-0.522832 
8192 1:-1 2:-0.602949 3:0.153849 4:0.820763 
8192 1:-0.783908 2:-0.638377 3:0.304236 4:0.635931 
8192 1:-0.855099 2:-0.684057 3:0.106882 4:0.245009 
8192 1:-0.83017 2:-0.774363 3:-0.544529 4:0.213906 
8192 1:-0.876955 2:-0.761265 3:-0.5247 4:0.888021 
8192 1:-0.821582 2:-0.674696 3:-0.342006 4:0.342668 
8192 1:-0.868662 2:-0.640987 3:0.215108 4:0.513849 
8192 1:-0.807999 2:-0.905715 3:0.259679 4:0.12149 
8192 1:-0.840757 2:-0.8029 3:-0.353749 4:0.333301 
8192 1:-0.879352 2:-0.645042 3:0.28134 4:0.257635 
8192 1:-0.806477 2:-0.638541 3:0.113481 4:0.205083 
8192 1:-0.869369 2:-0.564371 3:0.204779 4:0.49646 
8192 1:-0.847905 2:-0.768504 3:0.28967 4:0.748166 
8192 1:-0.825429 2:-0.680837 3:-0.671554 4:0.603388 
8192 1:-0.837689 2:-0.728665 3:0.373633 4:0.0774717 
8192 1:-0.800041 2:-0.496772 3:0.327894 4:0.546008 
8192 1:-0.816606 2:-0.707975 3:-0.43908 4:0.734037 
8192 1:-0.757684 2:-0.706738 3:0.139002 4:0.037545 
8192 1:-0.848496 2:-0.763584 3:-0.347167 4:0.21755 
8192 1:-0.873961 2:-0.547166 3:0.193777 4:0.784033 
8192 1:-0.854317 2:-0.746583 3:-0.716092 4:0.135779 
8192 1:-0.889847 2:-0.636297 3:0.506631 4:-0.73426 
8192 1:-0.848174 2:-0.646092 3:0.266175 4:0.0672741 
8192 1:-0.850367 2:-0.714348 3:-0.437014 4:0.674195 
8192 1:-0.889372 2:-0.504982 3:-0.467813 4:-0.694462 
8192 1:-0.803494 2:-0.671521 3:0.0655852 4:0.381794 
8192 1:-1 2:-0.70495 3:0.39433 4:0.497131 
8192 1:-0.84888 2:-0.855729 3:-0.427366 4:0.468297 
8192 1:-0.831292 2:-0.828801 3:0.398867 4:0.360601 
8192 1:-0.855743 2:-0.794848 3:-0.43535 4:0.418173 
8192 1:-0.889822 2:-0.784415 3:0.429739 4:-0.717829 
8192 1:-0.849038 2:-0.645844 3:-0.402693 4:0.156653 
8192 1:-0.86378 2:-0.559324 3:0.45882 4:0.447903 
8192 1:-0.83172 2:-0.643733 3:0.338029 4:-0.0705027 
8192 1:-0.854112 2:-0.741248 3:0.254621 4:0.121362 
8192 1:-0.839334 2:-0.818865 3:-0.643054 4:0.793527 
8192 1:-0.823217 2:-0.790857 3:0.100166 4:0.353664 
8192 1:-0.847752 2:-0.756169 3:0.0566548 4:0.199552 
8192 1:-0.803494 2:-0.504374 3:0.231118 4:0.483737 
8192 1:-0.791436 2:-0.85921 3:0.0547541 4:0.502533 
8192 1:-0.840922 2:-0.667932 3:-0.238455 4:0.0478383 
8192 1:-0.878007 2:-0.577154 3:0.0654491 4:0.593415 
8192 1:-0.849076 2:-0.807387 3:0.126888 4:0.286023 
8192 1:-0.840711 2:-0.80357 3:0.129076 4:0.172637 
8192 1:-0.871045 2:-0.497947 3:0.3074 4:0.387005 
8192 1:0.779835 2:0.323485 3:-0.402163 4:0.808039 
8192 1:-0.878505 2:-0.749735 3:0.570375 4:0.324415 
8192 1:-0.851916 2:-0.686199 3:-0.301 4:0.204731 
8192 1:-1 2:-0.638217 3:-0.303597 4:0.521362 
8192 1:-0.823781 2:-0.783405 3:-0.408298 4:0.361305 
8192 1:-0.846436 2:-0.714407 3:-0.428826 4:0.21528 
8192 1:-0.84809 2:-0.786313 3:-0.490432 4:0.389946 
8192 1:-0.862589 2:-0.446607 3:0.36409 4:0.482459 
8192 1:-0.742387 2:-0.678638 3:-0.411397 4:0.547894 
8192 1:-0.855728 2:-0.697507 3:-0.207261 4:-0.142556 
5660.2523887853531 1:-0.897526 2:-0.766073 3:0.31783 4:0.999136 
8192 1:-0.846369 2:-0.630588 3:-0.369059 4:-0.0696076 
8192 1:-0.82947 2:-0.707005 3:-0.495996 4:0.0155838 
8192 1:-0.839414 2:-0.677167 3:0.658173 4:0.40561 
8192 1:-0.863727 2:-0.867031 3:0.0247671 4:-0.17529 
8192 1:-0.833273 2:-0.863505 3:0.108375 4:0.230113 
8192 1:-0.858805 2:-0.820107 3:0.2268 4:0.358108 
8192 1:-0.85343 2:-0.837519 3:0.270539 4:0.114041 
8192 1:-0.79897 2:-0.600821 3:-0.361075 4:-0.00350038 
8192 1:-0.85837 2:-0.848751 3:0.517491 4:0.205083 
8192 1:-0.803952 2:-0.588984 3:0.2168 4:0.428914 
8192 1:-0.813919 2:-0.71232 3:-0.282611 4:0.478303 
8192 1:-0.830614 2:-0.665439 3:0.0970073 4:0.177847 
8192 1:-0.834493 2:-0.784423 3:-0.648288 4:-0.0178215 
8192 1:-0.802505 2:-0.777332 3:0.198774 4:0.34401 
8192 1:-0.831832 2:-0.852203 3:-0.721584 4:0.518133 
8192 1:-0.807466 2:-0.716143 3:0.0970032 4:0.440485 
8192 1:-0.857802 2:-0.810429 3:0.28654 4:0.223335 
8192 1:-0.744437 2:-0.752469 3:-0.440844 4:0.674707 
8192 1:-0.865166 2:-0.622855 3:0.292061 4:0.690721 
8192 1:-0.839428 2:-0.462945 3:0.348981 4:0.627587 
8192 1:-0.726524 2:-0.66032 3:-0.306968 4:0.638424 
8192 1:-0.866827 2:-0.71516 3:0.326183 4:0.180724 
8192 1:-0.888706 2:-0.552473 3:0.187894 4:0.255558 
8192 1:-0.843915 2:-0.806648 3:0.321652 4:0.0280508 
8192 1:-0.874735 2:-0.627466 3:0.374067 4:0.381251 
8192 1:-0.749813 2:-0.565177 3:-0.410478 4:0.446047 
8192 1:-0.842269 2:-0.672283 3:0.130576 4:0.0883083 
8192 1:-0.832399 2:-0.609294 3:-0.351398 4:0.00586587 
8192 1:-0.744676 2:-0.583715 3:0.325001 4:0.512731 
8192 1:-0.818448 2:-0.633053 3:0.093848 4:0.256517 
8192 1:-0.831443 2:-0.757234 3:0.325932 4:0.955758 
8192 1:-0.883663 2:-0.693419 3:0.581172 4:0.0011668 
8192 1:-0.878258 2:-0.605574 3:0.263984 4:0.134084 
8192 1:-0.836674 2:-0.814568 3:-0.381722 4:0.0658994 
8192 1:-0.824393 2:-0.69972 3:0.322773 4:0.356382 
8192 1:-1 2:-0.627203 3:-0.307985 4:0.236187 
8192 1:-0.848805 2:-0.755039 3:-0.471021 4:0.432877 
8192 1:-0.852391 2:-0.618271 3:-0.388776 4:0.322369 
8192 1:-0.875612 2:-0.705496 3:-0.639372 4:0.833389 
8192 1:-0.786837 2:-0.611374 3:0.353102 4:0.733398 
8192 1:-0.876644 2:-0.648684 3:0.0736862 4:0.321059 
8192 1:-1 2:-0.737581 3:-0.285938 4:0.356989 
8192 1:-0.806487 2:-0.683052 3:-0.525491 4:0.483865 
8192 1:-0.830197 2:-0.713336 3:-0.35575 4:0.122896 
8192 1:-0.826918 2:-0.75038 3:-0.400654 4:0.554863 
8192 1:-0.866539 2:-0.803963 3:0.377389 4:-0.0159994 
8192 1:-0.632245 2:-0.743564 3:0.0930327 4:0.695261 
8192 1:-0.852096 2:-0.759025 3:-0.516347 4:0.827443 
8192 1:-0.84368 2:-0.695574 3:-0.325662 4:0.582194 
8192 1:-0.637583 2:-0.707571 3:0.154377 4:0.79033 
8192 1:-0.867223 2:-0.764989 3:0.165207 4:0.659299 
8192 1:-0.873976 2:-0.467833 3:-0.530705 4:-0.264445 
8192 1:-0.877346 2:-0.754347 3:0.515804 4:0.210837 
8192 1:-0.889581 2:-0.623518 3:0.508456 4:-0.0458564 
8192 1:-0.777883 2:-0.749824 3:0.203672 4:0.861904 
8192 1:-0.850789 2:-0.836596 3:0.469649 4:0.327388 
8192 1:-0.830162 2:-0.560078 3:0.184517 4:0.532583 
8192 1:-0.728127 2:-0.76608 3:0.142469 4:0.321985 
8192 1:-0.854733 2:-0.62657 3:-0.373295 4:0.410724 
8192 1:-0.862831 2:-0.562001 3:0.347302 4:0.506784 
8192 1:-0.862232 2:-0.672146 3:0.519623 4:0.665723 
8192 1:-0.676351 2:-0.802793 3:0.233513 4:0.32873 
8192 1:-0.86249 2:-0.744814 3:-0.820591 4:0.0166386 
8192 1:-0.797573 2:-0.826618 3:-0.413974 4:0.360473 
8192 1:-0.828656 2:-0.816341 3:0.217516 4:0.261345 
8192 1:-0.481192 2:-0.869538 3:0.363996 4:0.628707 
8192 1:-0.850688 2:-0.82535 3:-0.590059 4:0.292065 
8192 1:-0.85561 2:-0.797702 3:0.368281 4:0.673748 
8192 1:-0.793281 2:-0.69191 3:0.264676 4:0.7076 
8192 1:-0.858344 2:-0.714626 3:-0.503153 4:0.361208 
8192 1:-0.856983 2:-0.836942 3:0.252576 4:0.405674 
8192 1:-0.859037 2:-0.758823 3:-0.40321 4:0.61333 
8192 1:-0.793477 2:-0.576165 3:-0.41942 4:0.34871 
8192 1:-0.883664 2:-0.788848 3:0.590621 4:-0.110717 
8192 1:-0.767629 2:-0.697651 3:0.288407 4:0.182163 
8192 1:-0.795866 2:-0.630007 3:-0.46937 4:0.511261 
8192 1:-0.856648 2:-0.848088 3:0.123923 4:0.241941 
8192 1:-0.886046 2:-0.73316 3:0.262194 4:-0.363414 
8192 1:-0.808104 2:-0.632507 3:0.0954984 4:0.589419 
-8192 1:-0.906654 2:-0.885641 3:0.113874 4:0.0481899 
-8192 1:-0.996941 2:-0.87689 3:0.125047 4:-0.576632 
-8192 1:-0.889526 2:-0.850563 3:-0.265073 4:-0.716838 
-8192 1:-0.878465 2:-0.92376 3:0.241193 4:-0.363702 
-8192 1:-0.885932 2:-0.854426 3:-0.633584 4:0.583665 
-8192 1:-0.88812 2:-0.864616 3:0.118812 4:-0.540798 
-8192 1:-0.907264 2:-0.918459 3:0.214819 4:0.517494 
-8192 1:-0.891554 2:-0.767794 3:0.237039 4:-0.898889 
-8192 1:-0.886921 2:-0.824075 3:0.036409 4:-0.582738 
-8192 1:-0.982966 2:-0.907746 3:0.379474 4:0.390043 
-8192 1:-0.932146 2:-0.870774 3:0.219383 4:-0.485783 
-8192 1:-0.878465 2:-0.794412 3:-0.339769 4:-0.376616 
-8192 1:-0.998747 2:-0.883613 3:-0.501574 4:0.607096 
-8192 1:-0.887992 2:-0.860655 3:-0.237516 4:-0.631455 
-8192 1:-0.907694 2:-0.915004 3:0.75185 4:0.0590905 
-2716.6528768394342 1:-0.994738 2:-0.883007 3:0.31255 4:-0.535076 
-8192 1:-0.989971 2:-0.892488 3:-0.534899 4:0.065324 
-8192 1:-0.854482 2:-0.864504 3:0.337086 4:0.406665 
-8192 1:-0.838943 2:-0.822173 3:-0.532842 4:0.221705 
-8192 1:-0.887826 2:-0.94285 3:0.19006 4:-0.621641 
-8192 1:-0.991732 2:-0.745855 3:0.208839 4:-0.449149 
-8192 1:-0.877408 2:-0.847179 3:0.718461 4:0.355551 
-8192 1:-0.99013 2:-0.861488 3:-0.448308 4:-0.378087 
-8192 1:-0.981552 2:-0.911032 3:0.0694805 4:0.262048 
-8192 1:-0.937418 2:-0.930928 3:0.323426 4:0.3185 
-8192 1:-0.99285 2:-0.820049 3:-0.388473 4:-0.421338 
-8192 1:-0.907416 2:-0.885463 3:0.602809 4:-0.0599217 
-8192 1:-0.877159 2:-0.910376 3:-0.615463 4:0.0263246 
-8192 1:-0.988956 2:-0.863993 3:0.0470418 4:-0.335155 
-8192 1:-0.990194 2:-0.892867 3:0.0850402 4:-0.474818 
-8192 1:-0.887548 2:-0.879834 3:0.573683 4:-0.604475 
-8192 1:-0.879888 2:-0.912795 3:-0.56164 4:0.540446 
-8192 1:-0.862845 2:-0.951214 3:0.485463 4:0.480188 
-8192 1:-0.876987 2:-0.809714 3:-0.581583 4:-0.0803804 
-8192 1:-0.869672 2:-0.875504 3:0.204643 4:0.327196 
-8192 1:-0.86438 2:-0.819977 3:0.444872 4:0.123247 
-8192 1:-0.992518 2:-0.853585 3:0.453045 4:-0.199776 
-8192 1:-0.930133 2:-0.899533 3:0.167806 4:0.215024 
-8192 1:-0.890904 2:-0.859043 3:0.279185 4:-0.698713 
-8192 1:-0.871267 2:-0.881788 3:0.0753941 4:-0.236634 
-8192 1:-0.962804 2:-0.932373 3:-0.420026 4:-0.031727 
-8192 1:-0.875098 2:-0.87158 3:-0.272156 4:0.0329417 
-8192 1:-0.943809 2:-0.890502 3:-0.351982 4:0.0668905 
-8192 1:-0.265233 2:-0.913258 3:-0.547159 4:-0.606138 
-8192 1:-0.998694 2:-0.649108 3:0.0584976 4:-0.759962 
-8192 1:-0.887797 2:-0.962344 3:0.508805 4:0.355103 
-8192 1:-0.992452 2:-0.798728 3:-0.373911 4:-0.440838 
-8192 1:-0.986274 2:-0.906864 3:0.591275 4:0.0995919 
-8192 1:-0.880984 2:-0.865859 3:-0.515344 4:-0.34401 
-8192 1:-0.883455 2:-0.964224 3:-0.390721 4:-0.441988 
-8192 1:-0.885749 2:-0.922022 3:0.170053 4:-0.467562 
-8192 1:-0.894282 2:-0.861833 3:0.292463 4:-0.36498 
-8192 1:-0.849812 2:-0.907185 3:0.227737 4:0.0838333 
-8192 1:-0.956536 2:-0.922632 3:-0.653474 4:0.330872 
-8192 1:-0.261996 2:-0.866512 3:0.201185 4:0.609047 
-8192 1:-0.996033 2:-0.840671 3:-0.407521 4:-0.557229 
-8192 1:-0.888625 2:-0.777828 3:-0.561376 4:-0.668888 
-8192 1:-0.98674 2:-0.918536 3:0.383971 4:-0.291265 
-8192 1:-0.973876 2:-0.919434 3:0.162096 4:-0.355263 
-8192 1:-0.984232 2:-0.892614 3:-0.658751 4:0.153872 
-8192 1:-0.967952 2:-0.933534 3:0.120585 4:0.141181 
-8192 1:-0.985194 2:-0.869449 3:0.426004 4:-0.304659 
-8192 1:-0.993907 2:-0.867898 3:-0.388095 4:-0.498282 
-8192 1:-0.880411 2:-0.917315 3:-0.309853 4:-0.285831 
-8192 1:-0.878512 2:-0.892498 3:-0.415116 4:-0.312011 
-8192 1:-0.865363 2:-0.922967 3:0.303642 4:-0.0518661 
-8192 1:-0.882269 2:-0.863418 3:-0.436965 4:-0.390266 
-8192 1:-0.883326 2:-0.934292 3:0.224567 4:-0.349093 
-8192 1:-0.925682 2:-0.902886 3:0.247779 4:0.252745 
-7134.6457539610055 1:-0.997198 2:-0.839816 3:-0.317254 4:-0.635803 
-8192 1:-0.880566 2:-0.910059 3:0.57822 4:-0.0286582 
-8192 1:-0.983711 2:-0.955509 3:0.359723 4:0.14652 
-8192 1:-0.976572 2:-0.93525 3:0.252005 4:0.420827 
-8192 1:-0.87369 2:-0.885804 3:0.206863 4:0.433581 
-8192 1:-0.888906 2:-0.845276 3:0.266068 4:-0.580372 
-8192 1:-0.988069 2:-0.91035 3:-0.429604 4:0.0483497 
-8192 1:-0.993198 2:-0.877862 3:-0.392645 4:-0.327324 
-8192 1:-0.888753 2:-0.9189 3:0.350418 4:-0.663454 
-8192 1:-0.974187 2:-0.786585 3:0.375313 4:-0.0729641 
-8192 1:-0.979976 2:-0.876283 3:0.263272 4:-0.202845 
-137.12393702540561 1:-0.980394 2:-0.91751 3:0.950446 4:0.992551 
-8192 1:-0.736778 2:-0.901722 3:0.0843156 4:-0.565668 
-8192 1:-0.886032 2:-0.895699 3:0.0621662 4:-0.545049 
-8192 1:-0.789558 2:-0.92527 3:-0.497776 4:0.204795 
-8192 1:-0.992023 2:-0.812476 3:0.235024 4:-0.430416 
-8192 1:-0.872277 2:-0.891876 3:-0.401042 4:-0.276432 
-8192 1:-0.963211 2:-0.824393 3:0.255973 4:0.401454 
-8192 1:-0.966841 2:-0.884134 3:0.156155 4:-0.0602413 
-8192 1:-0.983127 2:-0.89957 3:0.293926 4:0.0765441 
-8192 1:-0.95759 2:-0.918952 3:0.361022 4:0.196452 
-8192 1:-0.864904 2:-0.839698 3:0.482292 4:0.409798 
-8192 1:-0.867529 2:-0.921945 3:0.400554 4:0.281547 
-8192 1:-0.916144 2:-0.907508 3:0.617605 4:0.397139 
-8192 1:-0.981525 2:-0.94327 3:-0.446894 4:-0.228994 
-8192 1:-0.955272 2:-0.911586 3:0.20787 4:-0.440678 
-8192 1:-0.650984 2:-0.8761 3:0.120906 4:-0.765875 
-8192 1:-0.983639 2:-0.942751 3:0.412224 4:0.0108528 
-8192 1:-0.879091 2:-0.865054 3:0.31407 4:0.392792 
-8192 1:-0.98743 2:-0.823631 3:0.21222 4:-0.321666 
-8192 1:-0.994243 2:-0.798841 3:-0.318468 4:-0.508799 
-8192 1:-0.995871 2:-0.888386 3:0.112392 4:-0.477024 
-8192 1:-0.885349 2:-0.940092 3:0.108826 4:-0.516151 
-8192 1:-0.879049 2:-0.82887 3:0.105602 4:-0.378438 
-8192 1:-0.888026 2:-0.873213 3:0.223154 4:0.612786 
-8192 1:-0.882712 2:-0.921266 3:0.134165 4:-0.462671 
-8192 1:-0.933681 2:-0.896633 3:0.465194 4:0.329657 
-8192 1:-0.887197 2:-0.923179 3:-0.364841 4:-0.592328 
-8192 1:-0.880056 2:-0.803553 3:0.114324 4:-0.402446 
-8192 1:-0.874984 2:-0.838426 3:0.269483 4:0.490034 
-8192 1:-0.879798 2:-0.933452 3:0.162549 4:-0.355646 
-8192 1:-0.886738 2:-0.926506 3:0.337784 4:0.194438 
-8192 1:-0.878565 2:-0.900382 3:0.12077 4:0.198114 
-8192 1:-0.995454 2:-0.850172 3:-0.340457 4:-0.49419 
-8192 1:-0.880391 2:-0.937318 3:-0.258291 4:-0.40577 
-8192 1:-0.85546 2:-0.859245 3:0.558461 4:0.512379 
-8192 1:-0.992102 2:-0.821497 3:0.457563 4:0.285127 
-8192 1:-0.547317 2:-0.933426 3:0.810878 4:0.462127 
-8192 1:-0.862091 2:-0.855249 3:0.266128 4:0.276464 
-8192 1:-0.884691 2:-0.941395 3:0.447019 4:0.567267 
-8192 1:-0.811634 2:-0.715846 3:0.136948 4:-0.532358 
-8192 1:-0.886008 2:-0.896478 3:0.307095 4:-0.557484 
-8192 1:-0.883844 2:-0.84416 3:0.620348 4:-0.0846959 
-8192 1:-0.969662 2:-0.889482 3:0.381201 4:0.131399 
-8192 1:-0.907692 2:-0.832651 3:0.411939 4:0.340142 
-8192 1:-0.879199 2:-0.85506 3:0.138396 4:0.0230639 
-8192 1:-0.99423 2:-0.85142 3:0.162086 4:-0.498921 
-8192 1:-0.495864 2:-0.908979 3:0.234824 4:-0.491793 
-8192 1:-0.883167 2:-0.914281 3:-0.508434 4:-0.445697 
-8192 1:-0.981913 2:-0.949133 3:0.476338 4:0.173596 
-8192 1:-0.875146 2:-0.949927 3:0.227028 4:-0.121522 
-8192 1:-0.878849 2:-0.797192 3:0.5503 4:-0.0886597 
-8192 1:-0.899747 2:-0.8336 3:0.417572 4:0.0322065 
-8192 1:-0.867144 2:-0.946295 3:-0.331597 4:-0.197283 
-8192 1:-0.871658 2:-0.84554 3:-0.520159 4:0.211924 
-8192 1:-0.953911 2:-0.843185 3:-0.420796 4:0.507105 
-8192 1:-0.887736 2:-0.889998 3:0.339431 4:-0.612819 
-8192 1:-0.870804 2:-0.907555 3:-0.695894 4:0.631839 
-8192 1:-0.9945 2:-0.92062 3:-0.336406 4:0.351938 
-8192 1:-0.811074 2:-0.884298 3:0.434015 4:0.272372 
-8192 1:-0.990944 2:-0.652178 3:-0.420516 4:-0.412643 
-1037.0613251970196 1:-0.859748 2:-0.932899 3:0.605779 4:0.527244 
-8192 1:-0.987504 2:-0.720747 3:-0.297248 4:-0.313194 
-8192 1:-0.973322 2:-0.777616 3:0.260955 4:0.347943 
-8192 1:-0.987881 2:-0.888833 3:-0.401098 4:-0.324127 
-8192 1:-0.978322 2:-0.941294 3:0.270599 4:0.479454 
-8192 1:-0.874549 2:-0.917823 3:0.23285 4:-0.0631823 
-8192 1:-0.897142 2:-0.877601 3:0.33159 4:0.616143 
-8192 1:-0.99197 2:-0.868543 3:0.338548 4:-0.446624 
-8192 1:-0.990796 2:-0.768074 3:-0.337367 4:-0.425589 
-4086.6454717749984 1:-0.955819 2:-0.920819 3:-0.718158 4:0.233085 
-8192 1:-0.874396 2:-0.871442 3:0.20355 4:-0.261888 
-8192 1:-0.183929 2:-0.923497 3:0.344967 4:0.570431 
-8192 1:-0.871342 2:-0.831312 3:0.126427 4:-0.158475 
-8192 1:-0.971614 2:-0.850891 3:0.445045 4:0.501638 
-8192 1:-0.861283 2:-0.94423 3:0.306591 4:-0.0367138 
-8192 1:-0.885494 2:-0.949158 3:-0.31885 4:-0.531431 
-8192 1:-0.988965 2:-0.738164 3:-0.334937 4:-0.341293 
-8192 1:-0.986565 2:-0.931426 3:-0.475642 4:-0.281611 
-8192 1:-0.982676 2:-0.966144 3:-0.452409 4:0.0136978 
-8192 1:-0.904608 2:-0.911452 3:0.546782 4:0.39976 
-8192 1:-0.969985 2:-0.975076 3:0.147146 4:-0.45794 
-8192 1:-0.974255 2:-0.935401 3:0.376199 4:0.446016 
-8192 1:-0.892613 2:-0.8793 3:0.268123 4:0.281931 
-8192 1:-0.994923 2:-0.893891 3:-0.387723 4:-0.0235116 
-8192 1:-0.846267 2:-0.896599 3:-0.289003 4:0.0976425 
-8192 1:-0.988009 2:-0.773654 3:0.156676 4:-0.353888 
-8192 1:-0.994938 2:-0.926146 3:0.424368 4:0.178455 
-8192 1:-0.843952 2:-0.81606 3:0.311093 4:0.596548 
-8192 1:-0.929816 2:-0.849201 3:0.247832 4:0.150228 
-8192 1:-0.886268 2:-0.861917 3:-0.338041 4:-0.560361 
-8192 1:-0.888644 2:-0.84072 3:0.492505 4:0.468392 
-8192 1:-0.886208 2:-0.73282 3:-0.40072 4:-0.562247 
-8192 1:-0.882815 2:-0.845632 3:-0.778564 4:-0.415072 
-8192 1:-0.878256 2:-0.892749 3:0.271802 4:0.186638 
-8192 1:-0.989598 2:-0.837244 3:-0.482439 4:-0.388572 
-8192 1:-0.964562 2:-0.866671 3:-0.356297 4:0.426996 
-8192 1:-0.907793 2:-0.899089 3:0.226229 4:0.382978 
-8192 1:-0.887817 2:-0.842756 3:0.500615 4:-0.595013 
-8192 1:-0.888537 2:-0.911411 3:0.508391 4:0.518836 
-8192 1:-0.877421 2:-0.892539 3:0.165704 4:-0.0683609 
-8192 1:-0.882451 2:-0.909099 3:-0.407724 4:-0.439527 
-8192 1:-0.977088 2:-0.814882 3:0.156905 4:-0.22893 
-8192 1:-0.998524 2:-0.887757 3:0.0218631 4:-0.412451 
-8192 1:-0.99621 2:-0.722036 3:0.346327 4:-0.588716 
-8192 1:-0.925427 2:-0.839901 3:-0.633055 4:0.510174 
-8192 1:-0.907692 2:-0.862282 3:-0.486268 4:0.658627 
-4451.6473148766227 1:-0.907696 2:-0.948216 3:0.279292 4:0.727611 
-8192 1:-0.998405 2:-0.809195 3:0.133021 4:-0.66972 
-8192 1:-0.884531 2:-0.763706 3:-0.00601222 4:-0.534724 
-8192 1:-0.877118 2:-0.92309 3:0.448281 4:0.409542 
-8192 1:-0.878357 2:-0.867779 3:0.104121 4:-0.283593 
-8192 1:-0.897889 2:-0.628043 3:0.288748 4:-0.761176 
-8192 1:-0.87565 2:-0.945449 3:0.500007 4:-0.0227763 
-8192 1:-0.984603 2:-0.891312 3:0.246067 4:0.240662 
-8192 1:-0.989735 2:-0.878163 3:0.0464976 4:-0.410917 
-8192 1:-0.998278 2:-0.903304 3:0.282107 4:-0.422808 
-8192 1:-0.883245 2:-0.934589 3:0.236958 4:-0.478015 
-8192 1:-0.867294 2:-0.817928 3:0.458292 4:-0.0461441 
-8192 1:-0.87277 2:-0.90095 3:0.378818 4:0.245457 
-8192 1:-0.996736 2:-0.7911 3:0.406063 4:-0.61966 
-8192 1:-0.883142 2:-0.704434 3:-0.38466 4:-0.238744 
-8192 1:-0.976082 2:-0.908042 3:0.187523 4:0.112923 
-8192 1:-0.970231 2:-0.91625 3:-0.394483 4:-0.0135698 
-8192 1:-0.914876 2:-0.858917 3:-0.23306 4:-0.170782 
-8192 1:-0.994923 2:-0.893891 3:-0.387723 4:-0.0235116 
-8192 1:-0.964707 2:-0.952257 3:0.319436 4:0.172349 
-8192 1:-0.850786 2:-0.885691 3:-0.330899 4:0.21675 
-8192 1:-0.968005 2:-0.963126 3:0.26067 4:0.0922084 
-8192 1:-0.889945 2:-0.774075 3:0.181945 4:-0.741229 
-8192 1:-0.99699 2:-0.861559 3:0.175142 4:-0.534916 
-8192 1:-0.852556 2:-0.891558 3:0.336668 4:-0.0875729 
-8192 1:-0.99157 2:-0.857763 3:-0.288861 4:-0.418173 
-8192 1:-0.998076 2:-0.893355 3:0.160068 4:0.250731 
-8192 1:-0.884719 2:-0.819816 3:0.419849 4:-0.516663 
-8192 1:-0.874021 2:-0.868189 3:-0.545139 4:-0.243763 
-8192 1:-0.980704 2:-0.853394 3:0.400756 4:0.0810203 
-8192 1:-0.890025 2:-0.888488 3:0.371028 4:-0.586478 
-8192 1:-0.857958 2:-0.904212 3:-0.48007 4:-0.180372 
-8192 1:-0.932146 2:-0.870774 3:0.219383 4:-0.485783 
-8192 1:-0.881825 2:-0.911397 3:-0.515025 4:-0.412099 
-8192 1:-0.62681 2:-0.943487 3:0.273348 4:0.76968 
-8192 1:-0.945167 2:-0.8912 3:0.5137 4:0.34564 
-8192 1:-0.987881 2:-0.888833 3:-0.401098 4:-0.324127 
-8192 1:-0.880438 2:-0.807707 3:-0.333335 4:-0.401518 
-8192 1:-0.987881 2:-0.888833 3:-0.401098 4:-0.324127 
-8192 1:-0.994904 2:-0.874698 3:0.0638427 4:-0.502629 
-8192 1:-0.992519 2:-0.878246 3:-0.44219 4:-0.218189 
-8192 1:-0.888148 2:-0.854673 3:0.219016 4:-0.595748 
-8192 1:-0.986339 2:-0.892563 3:-0.609226 4:-0.288324 
-8192 1:-0.943309 2:-0.935163 3:0.265067 4:-0.484408 
-8192 1:-0.852749 2:-0.934125 3:0.168614 4:0.345194 
-8192 1:-0.907691 2:-0.90976 3:0.346869 4:0.678702 
-8192 1:-0.888349 2:-0.892989 3:0.442615 4:-0.654759 
-8192 1:-0.882519 2:-0.938551 3:-0.644593 4:0.536227 
-8192 1:-0.868784 2:-0.947643 3:0.129402 4:-0.22893 
-8192 1:-0.955045 2:-0.951248 3:0.408358 4:0.372493 
-8192 1:-0.977885 2:-0.926923 3:0.334836 4:0.256932 
-8192 1:-0.987093 2:-0.903973 3:-0.386311 4:-0.332726 
-8192 1:-0.881343 2:-0.918783 3:0.469952 4:0.379909 
-8192 1:-0.926948 2:-0.802072 3:0.533577 4:0.627492 
-8192 1:-0.977634 2:-0.660102 3:-0.401522 4:0.268121 
-8192 1:-0.88081 2:-0.819669 3:-0.660803 4:-0.403692 
-8192 1:-0.996115 2:-0.785133 3:0.170262 4:-0.57903 
-8192 1:-0.904359 2:-0.907387 3:0.411496 4:-0.208567 
-8192 1:-0.981229 2:-0.801177 3:0.367261 4:0.433325 
-8192 1:-0.961905 2:-0.892829 3:0.340035 4:-0.0220411 
-8192 1:-0.986879 2:-0.881159 3:-0.419192 4:-0.201119 
-8192 1:-0.881616 2:-0.717486 3:0.146373 4:-0.432206 
-8192 1:-0.962498 2:-0.770308 3:0.237824 4:-0.0588029 
-8192 1:-0.989618 2:-0.903156 3:0.088538 4:-0.324255 
-8192 1:-0.858192 2:-0.892269 3:0.424399 4:0.589004 
-8192 1:-0.918958 2:-0.956201 3:0.22041 4:0.446272 
-8192 1:-0.877467 2:-0.780775 3:-0.555407 4:-0.103652 
-8192 1:-0.88784 2:-0.87054 3:-0.330471 4:-0.631072 
-8192 1:-0.847049 2:-0.868175 3:0.75492 4:0.45535 
-8192 1:-0.846241 2:-0.757644 3:0.506554 4:0.6499 
-8192 1:-0.993227 2:-0.911066 3:0.116997 4:-0.50215 
-8192 1:-0.995967 2:-0.860938 3:0.217119 4:-0.542044 
-8192 1:-0.987504 2:-0.720747 3:-0.297248 4:-0.313194 
-8192 1:-0.882124 2:-0.922539 3:0.396941 4:0.281611 
-8192 1:-0.86501 2:-0.927951 3:0.170405 4:0.230561 
-8192 1:-0.967486 2:-0.910916 3:0.298572 4:-0.098122 
-8192 1:-0.883986 2:-0.659077 3:0.19754 4:-0.494766 
-8192 1:-0.880983 2:-0.834171 3:-0.337958 4:-0.407017 
-8192 1:-0.883265 2:-0.786611 3:0.579042 4:0.161224 
-8192 1:-0.873538 2:-0.933347 3:-0.0183236 4:-0.518549 
-8192 1:-0.994068 2:-0.958099 3:0.199144 4:-0.393782 
-8192 1:-0.879717 2:-0.863035 3:-0.356786 4:-0.39634 
-8192 1:-0.885104 2:-0.864948 3:0.129905 4:-0.511037 
-8192 1:-0.885898 2:-0.872881 3:0.163442 4:-0.554831 
-8192 1:-0.888713 2:-0.824138 3:0.24235 4:-0.662047 
-8192 1:-0.889873 2:-0.909901 3:-0.28462 4:-0.590218 
-8192 1:-0.988352 2:-0.842343 3:-0.384306 4:0.337617 
-8192 1:-0.962498 2:-0.770308 3:0.237824 4:-0.0588029 
-8192 1:-0.881703 2:-0.820974 3:0.195121 4:-0.437705 
-8192 1:-0.978424 2:-0.919158 3:0.244056 4:-0.220746 
-8192 1:-0.889545 2:-0.897446 3:-0.333194 4:-0.721058 
-8192 1:-0.947784 2:-0.953084 3:0.146976 4:0.595556 
-8192 1:-0.881825 2:-0.788483 3:0.265631 4:-0.420347 
-8192 1:-0.993002 2:-0.860513 3:0.320183 4:-0.526221 
-8192 1:-0.871618 2:-0.863486 3:0.543299 4:-0.104579 
-8192 1:-0.860578 2:-0.930093 3:0.474938 4:0.384384 
-8192 1:-0.907692 2:-0.898314 3:0.14612 4:0.370862 
-8192 1:-0.869608 2:-0.863313 3:0.395001 4:0.575578 
-8192 1:-0.974489 2:-0.955551 3:0.165798 4:0.26339 
-8192 1:-0.974862 2:-0.862886 3:-0.419625 4:0.0538159 
-8192 1:-0.969103 2:-0.920857 3:0.535803 4:0.159531 
-8192 1:-0.971307 2:-0.85398 3:-0.348952 4:0.130888 
-8192 1:-0.992722 2:-0.836483 3:-0.497097 4:-0.429042 
-8192 1:-0.870319 2:-0.871355 3:0.371204 4:-0.214992 
-8192 1:-0.871864 2:-0.825812 3:-0.362618 4:-0.28826 
-8192 1:-0.99699 2:-0.861559 3:0.175142 4:-0.534916 
-8192 1:-0.990796 2:-0.768074 3:-0.337367 4:-0.425589 
-8192 1:-0.989106 2:-0.891296 3:0.30974 4:-0.0704068 
-8192 1:-0.977559 2:-0.893892 3:0.230354 4:0.516407 
-8192 1:-0.887561 2:-0.880743 3:0.506565 4:0.484472 
-8192 1:-0.888988 2:-0.938479 3:-0.396685 4:-0.619532 
-8192 1:-0.989167 2:-0.92434 3:0.312752 4:0.331991 
-8192 1:-0.85461 2:-0.885005 3:0.408024 4:-0.216079 
-8192 1:-0.994479 2:-0.83872 3:0.664084 4:0.00298893 
-8192 1:-0.875504 2:-0.740112 3:-0.48378 4:-0.305075 
-8192 1:-0.892549 2:-0.884 3:-0.447909 4:-0.470279 
-8192 1:-0.891756 2:-0.985379 3:0.555034 4:0.0261968 
-8192 1:-0.883919 2:-0.923136 3:-0.284071 4:-0.468265 
-8192 1:-0.879185 2:-0.756159 3:0.741717 4:0.687493 
-8192 1:-0.989604 2:-0.752474 3:0.228673 4:-0.360665 
-8192 1:-0.882324 2:-0.87645 3:-0.381012 4:-0.439431 
-8192 1:-0.988963 2:-0.901837 3:0.307318 4:0.39244 
-8192 1:-0.901599 2:-0.862688 3:-0.37765 4:-0.657636 
-8192 1:-0.989216 2:-0.936876 3:0.176231 4:-0.295005 
-8192 1:-0.993415 2:-0.716109 3:-0.242484 4:-0.486774 
-8192 1:-0.938257 2:-0.916185 3:-0.440982 4:0.297946 
-8192 1:-0.877557 2:-0.887522 3:-0.346349 4:-0.358044 
-8192 1:-0.989719 2:-0.861324 3:0.152248 4:-0.368433 
-8192 1:-0.963925 2:-0.728062 3:0.391946 4:-0.112283 
-8192 1:-0.900815 2:-0.858724 3:0.427434 4:0.0313434 
-8192 1:-0.873073 2:-0.930128 3:-0.405476 4:0.20374 
-8192 1:-0.907686 2:-0.827101 3:0.529892 4:0.602302 
-8192 1:-0.965009 2:-0.919084 3:0.408285 4:0.0600814 
-8192 1:-0.985807 2:-0.847398 3:-0.604973 4:0.13677 
-8192 1:-0.977516 2:-0.89764 3:0.61396 4:0.0714301 
-8192 1:-0.982973 2:-0.805303 3:0.177137 4:-0.385471 
-8192 1:-0.981456 2:-0.88584 3:0.147202 4:-0.14425 
-8192 1:-0.907692 2:-0.889895 3:-0.285183 4:0.117334 
-8192 1:-0.882278 2:-0.890146 3:0.232574 4:0.44966 
-8192 1:-0.989971 2:-0.892488 3:-0.534899 4:0.065324 
-8192 1:-0.991636 2:-0.857557 3:-0.379343 4:0.300983 
-8192 1:-0.991605 2:-0.884937 3:0.483374 4:-0.42153 
-8192 1:-0.880339 2:-0.848202 3:0.226624 4:-0.401231 
-8192 1:-0.967251 2:-0.906285 3:0.305284 4:0.0638536 
-8192 1:-0.859697 2:-0.873467 3:0.386746 4:0.514297 
-8192 1:-0.878031 2:-0.853655 3:-0.438547 4:0.145464 
-8192 1:-0.990385 2:-0.937256 3:0.344866 4:-0.317062 
-8192 1:-0.157596 2:-0.902361 3:0.296409 4:-0.489523 
-8192 1:-0.86988 2:-0.893556 3:0.621353 4:0.231807 
-8192 1:-0.861481 2:-0.919281 3:0.588953 4:0.211668 
-8192 1:-0.986249 2:-0.946358 3:0.281432 4:0.44867 
-8192 1:-0.96715 2:-0.918839 3:-0.532177 4:0.42137 
-8192 1:-0.990931 2:-0.724982 3:0.646297 4:0.727644 
-8192 1:-0.982423 2:-0.931736 3:0.417693 4:0.214609 
-8192 1:-0.854354 2:-0.885708 3:-0.707303 4:-0.074978 
-8192 1:-0.932146 2:-0.870774 3:0.219383 4:-0.485783 
-8192 1:-0.907691 2:-0.868492 3:-0.603783 4:0.550995 
-8192 1:-0.954695 2:-0.897338 3:0.100248 4:0.731607 
-8192 1:-0.867694 2:-0.844093 3:-0.306373 4:-0.344138 
-8192 1:-0.867216 2:-0.827924 3:0.0567006 4:0.142172 
-8192 1:-0.851823 2:-0.688802 3:0.512189 4:0.785599 
-8192 1:-0.957091 2:-0.761859 3:0.092289 4:0.0882443 
-8192 1:-0.99392 2:-0.908989 3:0.187638 4:-0.266203 
-8192 1:-0.863567 2:-0.930619 3:0.490069 4:-0.0401982 
-8192 1:-0.982647 2:-0.98267 3:-0.284597 4:0.0248861 
-8192 1:-0.873085 2:-0.901285 3:-0.405001 4:0.0402941 
-8192 1:-0.969527 2:-0.733567 3:0.0628644 4:-0.152082 
-8192 1:-0.860037 2:-0.807509 3:0.831137 4:0.52654 
-8192 1:-0.985277 2:-0.910287 3:0.432865 4:0.149589 
-8192 1:-0.994674 2:-0.867666 3:-0.437501 4:-0.489427 
-8192 1:-0.989941 2:-0.768709 3:0.172008 4:-0.365428 
-8192 1:-0.528205 2:-0.929929 3:0.131161 4:0.701782 
-8192 1:-0.988819 2:-0.863289 3:0.441422 4:-0.249964 
-8192 1:-0.8831 2:-0.875618 3:-0.421888 4:0.143291 
-8192 1:-0.671484 2:-0.848416 3:0.358992 4:0.449501 
-8192 1:-0.864058 2:-0.800133 3:0.163642 4:-0.196675 
-8192 1:-0.975533 2:-0.819825 3:0.193191 4:-0.247055 
-8192 1:-0.881044 2:-0.883516 3:0.0547503 4:-0.396468 
-8192 1:-0.996458 2:-0.900052 3:0.427946 4:0.343211 
-8192 1:-0.988569 2:-0.817573 3:0.186661 4:-0.367985 
-8192 1:-0.826474 2:-0.882208 3:-0.301568 4:0.238775 
-8192 1:-0.857499 2:-0.892873 3:0.15332 4:0.170847 
-8192 1:-0.493954 2:-0.905074 3:-0.868422 4:-0.698681 
-8192 1:-0.907475 2:-0.893398 3:-0.407314 4:0.0242468 
-8192 1:-0.859894 2:-0.886998 3:0.656392 4:0.375465 
-8192 1:-0.881528 2:-0.884704 3:0.248603 4:-0.401774 
-8192 1:-0.984292 2:-0.958663 3:0.193578 4:-0.274419 
-8192 1:-0.88711 2:-0.884271 3:0.459261 4:0.0563095 
-8192 1:-0.866413 2:-0.933841 3:0.0909289 4:-0.301399 
-8192 1:-0.970524 2:-0.788756 3:-0.207314 4:-0.177975 
-8192 1:-0.853023 2:-0.942121 3:0.124114 4:0.318852 
-8192 1:-0.993897 2:-0.887384 3:0.25737 4:-0.498921 
-8192 1:-0.876687 2:-0.858217 3:0.23052 4:-0.289283 
-8192 1:-0.882762 2:-0.80962 3:0.469694 4:-0.371949 
-8192 1:-0.96573 2:-0.962634 3:0.270474 4:0.109566 
-8192 1:-0.979136 2:-0.888192 3:0.246932 4:0.632926 
-8192 1:-0.873643 2:-0.875484 3:0.179822 4:0.0875413 
-8192 1:-0.884074 2:-0.902049 3:0.0336838 4:-0.566083 
-8192 1:-0.272207 2:-0.907632 3:0.22048 4:-0.710317 
-8192 1:-0.994923 2:-0.893891 3:-0.387723 4:-0.0235116 
-8192 1:-0.872422 2:-0.902394 3:0.164677 4:-0.423416 
-8192 1:-0.786132 2:-0.860161 3:-0.706987 4:0.24958 
-8192 1:-0.478905 2:-0.97575 3:0.745398 4:0.676208 
-8192 1:-0.98911 2:-0.837201 3:-0.318713 4:-0.258116 
-8192 1:-0.885918 2:-0.783258 3:-0.547568 4:-0.556333 
-8192 1:-0.883471 2:-0.454331 3:-0.336701 4:-0.471174 
-8192 1:-0.932146 2:-0.870774 3:0.219383 4:-0.485783 
-8192 1:-0.993947 2:-0.853288 3:-0.446659 4:-0.475841 
-8192 1:-0.72545 2:-0.909377 3:0.503845 4:0.601503 
-8192 1:-0.907691 2:-0.917433 3:0.315069 4:0.435211 
-8192 1:-0.882517 2:-0.885363 3:-0.247449 4:-0.367985 
-8192 1:-0.971702 2:-0.842056 3:-0.513449 4:0.521873 
-8192 1:-0.908743 2:-0.871908 3:0.0938065 4:0.314825 
-8192 1:-0.886947 2:-0.851734 3:0.27987 4:-0.566787 
-8192 1:-0.88585 2:-0.887374 3:0.154172 4:-0.523568 
-8192 1:-0.997219 2:-0.8379 3:0.444457 4:0.576568 
-8192 1:-0.879449 2:-0.909544 3:0.359525 4:-0.0316311 
-8192 1:-0.891581 2:-0.86894 3:0.366406 4:0.54962 
-8192 1:-0.886465 2:-0.938898 3:0.277162 4:-0.545305 
-8192 1:-0.989376 2:-0.830059 3:-0.231246 4:-0.351235 
-8192 1:-0.998458 2:-0.631199 3:0.33042 4:-0.720706 
-8192 1:-0.889338 2:-0.858574 3:0.471506 4:-0.681739 
-8192 1:-0.991461 2:-0.920735 3:0.166851 4:0.227492 
-8192 1:-0.996135 2:-0.800436 3:-0.24494 4:-0.585935 
-8192 1:-0.872011 2:-0.800806 3:0.578345 4:0.61285 
-8192 1:-0.9904 2:-0.846886 3:0.487965 4:-0.343467 
-8192 1:-0.991443 2:-0.936922 3:0.237049 4:-0.4004 
-8192 1:-0.886881 2:-0.732693 3:-0.41524 4:-0.58667 
-8192 1:-0.889058 2:-0.890286 3:0.202719 4:-0.630464 
-8192 1:-0.864279 2:-0.839983 3:0.264335 4:0.504099 
-8192 1:-0.958757 2:-0.823793 3:0.401467 4:0.775817 
-8192 1:-0.990042 2:-0.925805 3:0.398099 4:0.318628 
-8192 1:-0.865965 2:-0.912707 3:0.465363 4:0.248685 
-8192 1:-0.998747 2:-0.883613 3:-0.501574 4:0.607096 
-8192 1:-0.860562 2:-0.91669 3:-0.838629 4:0.0978985 
-8192 1:-0.984588 2:-0.718196 3:0.379086 4:-0.318948 
-8192 1:-0.891984 2:-0.885356 3:0.352577 4:-0.568129 
-8192 1:-0.86022 2:-0.915349 3:0.393863 4:0.33327 
-8192 1:-0.881392 2:-0.946215 3:0.219158 4:-0.319939 
-8192 1:-0.92002 2:-0.837131 3:0.390409 4:-0.124718 
-8192 1:-0.983657 2:-0.883399 3:0.295206 4:-0.25396 
-8192 1:-0.886782 2:-0.844347 3:0.357432 4:-0.489427 
-8192 1:-0.899054 2:-0.929193 3:0.257821 4:0.271158 
-8192 1:-0.992446 2:-0.555598 3:-0.389316 4:-0.457684 
-8192 1:-0.868975 2:-0.916452 3:0.421367 4:0.117813 
-8192 1:-0.886989 2:-0.934184 3:0.0810795 4:-0.562375 
-8192 1:-0.887325 2:-0.85198 3:-0.379279 4:-0.588236 
-8192 1:-0.461306 2:-0.909179 3:0.185356 4:0.455989 
-8192 1:-0.877125 2:-0.671173 3:0.222687 4:-0.281803 
-8192 1:-0.895746 2:-0.867399 3:0.41507 4:0.271126 
-8192 1:-0.994979 2:-0.873527 3:-0.241097 4:0.223943 
-8192 1:-0.984457 2:-0.873442 3:0.0957119 4:0.106369 
-8192 1:-0.857268 2:-0.903282 3:0.157137 4:-0.680077 
-8192 1:-0.405293 2:-0.848518 3:0.379143 4:-0.510621 
-8192 1:-0.991529 2:-0.913242 3:-0.330779 4:-0.418876 
-8192 1:-0.885045 2:-0.949015 3:0.0766782 4:-0.519316 
-8192 1:-0.971307 2:-0.85398 3:-0.348952 4:0.130888 
-8192 1:-0.992168 2:-0.786965 3:0.374863 4:0.439239 
-8192 1:-0.983639 2:-0.942751 3:0.412224 4:0.0108528 
-1917.8237641315529 1:-0.86777 2:-0.887973 3:-0.732167 4:0.686374 
-8192 1:-0.987558 2:-0.897562 3:0.335263 4:-0.223304 
-8192 1:-0.994856 2:-0.852452 3:0.184301 4:-0.531623 
-8192 1:-0.982515 2:-0.866918 3:0.41462 4:0.0523136 
-8192 1:-0.86268 2:-0.912328 3:0.129029 4:0.343051 
-8192 1:-0.885511 2:-0.918349 3:0.0864403 4:-0.366643 
-8192 1:-0.884592 2:-0.867065 3:0.497587 4:0.779814 
-8192 1:-0.889668 2:-0.834218 3:0.0532455 4:-0.719779 
-8192 1:-0.985199 2:-0.908303 3:0.244172 4:0.297819 
-8192 1:-0.976285 2:-0.85566 3:-0.508081 4:0.672053 
-8192 1:-0.890585 2:-0.857955 3:0.42872 4:-0.680205 
-8192 1:-0.832701 2:-0.775502 3:0.375856 4:0.601854 
-8192 1:-0.896849 2:-0.960572 3:0.277646 4:0.350372 
-8192 1:-0.96979 2:-0.857697 3:0.281917 4:-0.189611 
-8192 1:-0.993496 2:-0.895594 3:0.269353 4:-0.436043 
-8192 1:-0.976848 2:-0.857546 3:0.232252 4:-0.0466555 
-8192 1:-0.968378 2:-0.916215 3:0.288714 4:0.620266 
-8192 1:-0.870148 2:-0.950948 3:0.140546 4:-0.186478 
-8192 1:-0.83901 2:-0.851595 3:0.637842 4:0.36904 
-8192 1:-0.980205 2:-0.884185 3:0.538479 4:-0.0941261 
-8192 1:-0.884405 2:-0.838472 3:0.15276 4:-0.495341 
-8192 1:-0.879286 2:-0.876829 3:0.414674 4:-0.318053 
-8192 1:-0.953757 2:-0.940182 3:0.318339 4:0.136898 
-8192 1:-0.883527 2:-0.855906 3:0.209813 4:0.461968 
-8192 1:-0.987039 2:-0.889213 3:0.602485 4:0.0922398 
-8192 1:-0.990082 2:-0.875664 3:0.39552 4:-0.0660593 
-8192 1:-0.881663 2:-0.891084 3:0.178724 4:-0.435915 
-8192 1:-0.877711 2:-0.722192 3:-0.374347 4:-0.364405 
-8192 1:-0.859142 2:-0.811081 3:0.511273 4:0.164805 
-8192 1:-0.878693 2:-0.679917 3:-0.402797 4:0.495501 
-8192 1:-0.973662 2:-0.865854 3:-0.232381 4:0.154703 
-8192 1:-0.99197 2:-0.868543 3:0.338548 4:-0.446624 
-8192 1:-0.87808 2:-0.895568 3:0.704548 4:-0.0569488 
-8192 1:-0.995651 2:-0.866686 3:0.328386 4:0.238808 
-8192 1:-0.9897 2:-0.878693 3:-0.381565 4:-0.28842 
-8192 1:-0.871326 2:-0.90231 3:0.204616 4:-0.25022 
-8192 1:-0.864777 2:-0.862841 3:0.427525 4:-0.118293 
-8192 1:-0.899197 2:-0.88965 3:0.538164 4:0.476225 
-8192 1:-0.966193 2:-0.843665 3:-0.678113 4:-0.050939 
-8192 1:-0.888582 2:-0.691676 3:0.536162 4:-0.665436 
-8192 1:-0.997387 2:-0.850231 3:0.147021 4:-0.650092 
-8192 1:-0.968055 2:-0.862549 3:0.365865 4:-0.114745 
-8192 1:-0.869017 2:-0.91044 3:0.104436 4:0.589643 
-8192 1:-0.885342 2:-0.869401 3:-0.394529 4:-0.500424 
-3087.2477758071759 1:-0.885246 2:-0.930685 3:-0.585386 4:1 
-8192 1:-0.985088 2:-0.930179 3:-0.423094 4:-0.108287 
-8192 1:-0.967688 2:-0.899241 3:0.277021 4:0.563941 
-8192 1:-0.85764 2:-0.875644 3:-0.435973 4:0.334484 
-8192 1:-0.876461 2:-0.858794 3:0.459419 4:-0.229441 
-8192 1:-0.874373 2:-0.825048 3:0.57263 4:0.265884 
-8192 1:-0.992392 2:-0.823177 3:0.315183 4:-0.44982 
-8192 1:-0.882464 2:-0.878875 3:-0.401235 4:-0.448925 
-8192 1:-0.878835 2:-0.930959 3:0.361135 4:0.535268 
-8192 1:-0.915548 2:-0.942328 3:0.330688 4:-0.355422 
-8192 1:-0.991066 2:-0.716601 3:0.182356 4:-0.282474 
-8192 1:-0.374516 2:-0.898153 3:-0.352893 4:0.521106 
-8192 1:-0.882875 2:-0.742932 3:0.481938 4:0.319364 
-8192 1:-0.861118 2:-0.899244 3:-0.308279 4:-0.178518 
-8192 1:-0.984326 2:-0.921731 3:0.145085 4:-0.302326 
-8192 1:-0.967743 2:-0.920514 3:0.330406 4:0.525773 
-8192 1:-0.988384 2:-0.956776 3:0.208291 4:0.108512 
-8192 1:-0.882814 2:-0.846226 3:-0.588603 4:-0.436458 
-8192 1:-0.982872 2:-0.895707 3:-0.403214 4:0.395541 
-8192 1:-0.889473 2:-0.898704 3:-0.381005 4:-0.616079 
-8192 1:-0.986541 2:-0.941997 3:0.403506 4:-0.00513071 
-8192 1:-0.988569 2:-0.817573 3:0.186661 4:-0.367985 
-8192 1:-0.989684 2:-0.889724 3:-0.336694 4:-0.194246 
-8192 1:-0.985711 2:-0.920095 3:-0.292632 4:-0.244913 
-8192 1:-0.86782 2:-0.898679 3:-0.317652 4:-0.126476 
-8192 1:-0.995166 2:-0.928201 3:0.405032 4:0.179094 
-8192 1:-0.881246 2:-0.877051 3:0.366259 4:-0.33637 
-8192 1:-0.907692 2:-0.840215 3:0.49899 4:0.830192 
-8192 1:-0.907571 2:-0.762779 3:-0.539006 4:0.724287 
-8192 1:-0.992897 2:-0.893686 3:0.382264 4:-0.178678 
-8192 1:-0.896644 2:-0.81997 3:-0.46766 4:0.0521537 
-8192 1:-0.861256 2:-0.850884 3:0.423275 4:0.248142 
-8192 1:-0.885353 2:-0.935389 3:0.392203 4:0.0396228 
-8192 1:-0.988662 2:-0.846841 3:0.244817 4:-0.258723 
-8192 1:-0.889543 2:-0.852002 3:0.290308 4:-0.713354 
-8192 1:-0.871894 2:-0.957542 3:0.387596 4:-0.179989 
-8192 1:-0.963211 2:-0.824393 3:0.255973 4:0.401454 
-8192 1:-0.990911 2:-0.901459 3:0.232631 4:0.0386318 
-8192 1:-0.983843 2:-0.945174 3:0.308715 4:-0.258851 
-8192 1:-0.987699 2:-0.882768 3:0.0965005 4:-0.325853 
-8192 1:-0.964404 2:-0.843639 3:-0.453348 4:-0.15627 
-8192 1:-0.990028 2:-0.947175 3:0.288811 4:0.108512 
-8192 1:-0.907691 2:-0.868492 3:-0.603783 4:0.550995 
-8192 1:-0.89457 2:-0.839143 3:0.590924 4:0.655206 
-8192 1:-0.898483 2:-0.942373 3:0.577099 4:0.39829 
-8192 1:-0.964922 2:-0.684127 3:0.134324 4:-0.41341 
-8192 1:-0.956591 2:-0.863583 3:-0.532602 4:0.170942 
-8192 1:-0.878548 2:-0.754101 3:0.0680561 4:-0.382083 
-8192 1:-0.881744 2:-0.922612 3:-0.619313 4:0.609494 
-8192 1:-0.926948 2:-0.802072 3:0.533577 4:0.627492 
-8192 1:-0.978723 2:-0.821415 3:0.577481 4:0.471207 
-8192 1:-0.867568 2:-0.823681 3:0.40169 4:-0.0973228 
-8192 1:-0.988444 2:-0.928058 3:-0.672406 4:0.027891 
-8192 1:-0.997114 2:-0.780791 3:0.582272 4:0.137505 
-8192 1:-0.994904 2:-0.874698 3:0.0638427 4:-0.502629 
-8192 1:-0.88538 2:-0.854671 3:0.360428 4:0.492752 
-8192 1:-0.864959 2:-0.887863 3:-0.338552 4:-0.127755 
-8192 1:-0.989416 2:-0.924545 3:0.289953 4:-0.366739 
-8192 1:-0.842624 2:-0.897183 3:0.394261 4:-0.385311 
-8192 1:-0.973028 2:-0.87151 3:-0.709528 4:0.0543915 
-8192 1:-0.991287 2:-0.897623 3:-0.241629 4:-0.242708 
-8192 1:-0.972126 2:-0.949974 3:0.225182 4:0.422553 
-8192 1:-0.883152 2:-0.905619 3:0.620517 4:-0.2195 
-8192 1:-0.865268 2:-0.88153 3:0.164464 4:0.304979 
-8192 1:-0.996963 2:-0.746835 3:0.22629 4:-0.623368 
-8192 1:-0.892422 2:-0.942451 3:0.435753 4:0.0675618 
-8192 1:-0.876061 2:-0.863578 3:0.225266 4:0.372844 
-8192 1:-0.8881 2:-0.894161 3:0.237235 4:-0.635483 
-8192 1:-0.991443 2:-0.936922 3:0.237049 4:-0.4004 
-8192 1:-0.990124 2:-0.918581 3:0.207433 4:-0.381507 
-8192 1:-0.888066 2:-0.724852 3:-0.548101 4:-0.620938 
-8192 1:-0.969985 2:-0.975076 3:0.147146 4:-0.45794 
-8192 1:-0.876405 2:-0.85337 3:0.168672 4:-0.338959 
-8192 1:-0.972499 2:-0.832438 3:0.282113 4:-0.100743 
-8192 1:-0.874303 2:-0.906521 3:-0.391194 4:-0.279597 
-8192 1:-0.986285 2:-0.909157 3:0.128614 4:-0.29833 
-8192 1:-0.886309 2:-0.888116 3:-0.482222 4:-0.554479 
-8192 1:-0.991385 2:-0.932506 3:0.207189 4:-0.429649 
-8192 1:-0.983935 2:-0.558778 3:0.329185 4:0.123983 
-8192 1:-0.879365 2:-0.872668 3:0.490235 4:0.523727 
-8192 1:-0.867622 2:-0.808742 3:0.351638 4:0.191369 
-8192 1:-0.896539 2:-0.908967 3:0.497239 4:0.0986655 
-8192 1:-0.862901 2:-0.881685 3:-0.362324 4:-0.0300328 
-8192 1:-0.9945 2:-0.92062 3:-0.336406 4:0.351938 
-8192 1:-0.971107 2:-0.919018 3:0.582469 4:0.213745 
-8192 1:-0.814314 2:-0.8873 3:0.361259 4:0.370414 
-8192 1:-0.988951 2:-0.908026 3:0.375939 4:-0.369648 
-8192 1:-0.983736 2:-0.858314 3:-0.424474 4:-0.269432 
-8192 1:-0.954688 2:-0.931075 3:-0.264457 4:0.292991 
-8192 1:-0.905655 2:-0.825184 3:-0.611467 4:0.577399 
-8192 1:-0.887006 2:-0.898104 3:0.415293 4:-0.58683 
-8192 1:-0.872252 2:-0.937011 3:0.438964 4:0.131496 
-8192 1:-0.888304 2:-0.847278 3:0.287199 4:-0.638776 
-8192 1:-0.874755 2:-0.779767 3:-0.30908 4:-0.366035 
-8192 1:-0.870581 2:-0.772684 3:0.154651 4:0.564293 
-8192 1:-0.886787 2:-0.89496 3:0.127869 4:-0.520531 
-8192 1:-0.945747 2:-0.859863 3:0.455951 4:0.352929 
-8192 1:-0.907453 2:-0.870744 3:0.422582 4:0.323999 
-8192 1:-0.996941 2:-0.87689 3:0.125047 4:-0.576632 
-8192 1:-0.87298 2:-0.901142 3:0.408828 4:-0.0581955 
-8192 1:-0.981913 2:-0.949133 3:0.476338 4:0.173596 
-8192 1:-0.881408 2:-0.91609 3:-0.303145 4:-0.408743 
-8192 1:-0.88311 2:-0.890907 3:0.314127 4:-0.428147 
-8192 1:-0.871752 2:-0.898375 3:0.263767 4:-0.324926 
-8192 1:-0.986033 2:-0.889897 3:0.147503 4:-0.23884 
-8192 1:-0.96357 2:-0.867674 3:-0.578378 4:-0.0171182 
-8192 1:-0.984326 2:-0.884338 3:0.426974 4:-0.207736 
